{
    "sizes": [
        6,
        30,
        30,
        3
    ],
    "biases": [
        [
            [
                0.8946927128904854
            ],
            [
                -0.45162129071916485
            ],
            [
                -0.44388010706430014
            ],
            [
                0.299628490668131
            ],
            [
                0.20451358117341847
            ],
            [
                -2.441883849656758
            ],
            [
                -0.4602380690223704
            ],
            [
                1.680300117441298
            ],
            [
                -1.1200073395281809
            ],
            [
                -0.7198358741251988
            ],
            [
                1.526732254654846
            ],
            [
                0.07830879259469066
            ],
            [
                1.234286429424821
            ],
            [
                1.1221294809913094
            ],
            [
                0.3148850288151168
            ],
            [
                -0.1008541235043066
            ],
            [
                -1.2180658697935303
            ],
            [
                -0.21363758486903262
            ],
            [
                1.1762339262505084
            ],
            [
                0.026782452085798304
            ],
            [
                -0.49880395844769715
            ],
            [
                1.4489791209609182
            ],
            [
                -1.4035061939280258
            ],
            [
                0.5182159302839211
            ],
            [
                1.047665443050332
            ],
            [
                0.04301856450343232
            ],
            [
                0.015868936505960732
            ],
            [
                -0.5131134015255613
            ],
            [
                1.4558010965151154
            ],
            [
                0.5957817988941212
            ]
        ],
        [
            [
                -0.056166231330267574
            ],
            [
                0.11286846885278772
            ],
            [
                1.0189900545467994
            ],
            [
                0.9108233242946455
            ],
            [
                1.587275675618168
            ],
            [
                0.6393546506001054
            ],
            [
                -0.8760695809782425
            ],
            [
                -0.6682493919967057
            ],
            [
                0.1982369227506848
            ],
            [
                0.9336596521338774
            ],
            [
                1.5327322923988864
            ],
            [
                -1.2341955044444257
            ],
            [
                -1.2412233329005484
            ],
            [
                0.6954687677733423
            ],
            [
                1.1497654427104624
            ],
            [
                0.0334468900607279
            ],
            [
                0.8407806669042256
            ],
            [
                0.3848299482073108
            ],
            [
                -0.3500078780722584
            ],
            [
                1.3447824820025076
            ],
            [
                0.07753565117692592
            ],
            [
                -0.06705812686351456
            ],
            [
                -1.4385590408197957
            ],
            [
                -0.2310258956225297
            ],
            [
                1.3105599211548813
            ],
            [
                -0.14606236593586908
            ],
            [
                -1.8608109640957158
            ],
            [
                -1.670616645387995
            ],
            [
                0.5572757708961994
            ],
            [
                -0.9280809613040113
            ]
        ],
        [
            [
                0.8981562555182938
            ],
            [
                0.14083663718743863
            ],
            [
                1.445899617952242
            ]
        ]
    ],
    "weights": [
        [
            [
                -0.4282478201429583,
                -1.7563317412808852,
                -0.4387834546699613,
                0.17970395875427575,
                -0.797438958902611,
                -0.8880778386605315
            ],
            [
                -1.4679535044395031,
                -0.46043328514677545,
                -0.16705182947951697,
                0.5750786987811617,
                -1.4649386434991396,
                0.7661069323268663
            ],
            [
                -1.2158886147958012,
                -0.6110374495749116,
                0.18634235882739109,
                -0.8615926977699404,
                0.6750676381657865,
                0.44716195298122347
            ],
            [
                0.35155300049345384,
                -1.4757721027761375,
                0.9170878960331641,
                -0.4706206967979671,
                1.6100244034341176,
                -0.12688561053178152
            ],
            [
                -1.1806891371638109,
                0.7232425593615465,
                0.8159189208288357,
                0.9499409269696213,
                0.46351082041798053,
                0.16783604350814016
            ],
            [
                0.6260342990968183,
                0.36154036530969724,
                2.5186686594738807,
                1.054968957430914,
                -1.2822820851676813,
                -0.72764190714148
            ],
            [
                -1.0866012191917493,
                0.6949526299169888,
                0.7509640060307254,
                0.8390197296107877,
                -0.01049147417818371,
                -0.014531001453407383
            ],
            [
                1.0666755845379585,
                0.8295501672218859,
                0.8842018992200299,
                -0.34918692074300905,
                -1.060821540812399,
                -0.6029542480177646
            ],
            [
                0.8723586164495694,
                0.14786819005700313,
                -1.8577801424519733,
                0.39301597083222084,
                -1.4020685496446867,
                -0.15651815793212423
            ],
            [
                0.743317365621096,
                -0.7866810467245674,
                1.3390002818568738,
                0.2537467628616157,
                2.034764716503084,
                0.26701411711590706
            ],
            [
                -0.02125032484511524,
                -1.5343572473242773,
                0.18302686860194406,
                1.8358143487625274,
                -0.16807967784672315,
                -0.56337893894847
            ],
            [
                -1.006418571003337,
                1.4819600790567327,
                -0.4813360605137341,
                -0.8066209358676323,
                -0.09676833981181283,
                -1.6014000820244416
            ],
            [
                -1.4493064469190313,
                1.9575518351201764,
                1.0503933748602137,
                -0.1365628590254293,
                0.5020781087954499,
                -1.4744844419427066
            ],
            [
                -0.8105724652644444,
                -1.547627264986105,
                -1.0607169988175615,
                0.9425224138785033,
                0.772139995230693,
                -1.1806580157054976
            ],
            [
                1.9113152275806302,
                -0.7636460737303276,
                -0.14227786942323822,
                -0.041455985934334666,
                -0.5031208247050385,
                -0.24982188682260423
            ],
            [
                1.0551756244356505,
                1.0216874437974373,
                1.1474966692845983,
                1.9653504313392338,
                0.13953124719220858,
                0.6021583095054533
            ],
            [
                0.14113255721826115,
                1.649916007695271,
                -0.5169547390927061,
                -0.656180450152108,
                0.8691836886222404,
                0.5382290645605882
            ],
            [
                1.983537773581325,
                -1.2587164109635336,
                1.168496709337398,
                -1.9987274569137454,
                0.5749654509831474,
                -0.1986596529829203
            ],
            [
                -0.602356026318784,
                0.6569394928203554,
                0.6204903591412047,
                0.7452148593144193,
                -0.07061749192319312,
                -0.7677641405400577
            ],
            [
                -0.40005647966083835,
                1.2055456717231863,
                0.1593216546518774,
                0.037966995241264796,
                -2.425261694716236,
                0.45365992095869784
            ],
            [
                1.2304713080040173,
                0.33704048080225263,
                0.33634454996448276,
                1.0559228530865286,
                -0.5724062386358032,
                -1.657978188399103
            ],
            [
                -0.7065628516627871,
                -0.662465784840141,
                0.43958234805748153,
                1.1780243726735884,
                -0.5053386927464607,
                -0.374690861769432
            ],
            [
                0.7881923417525588,
                0.8378467294532218,
                0.15770645052131,
                -0.19633333136891076,
                -0.4735556947190451,
                0.4385865437187191
            ],
            [
                -1.0012433496123303,
                -1.1243583217540238,
                0.027424824435964782,
                -0.9475374382894499,
                0.05792662565727305,
                -0.3422465223752766
            ],
            [
                -0.7220576467568167,
                -0.5006164055343857,
                0.9217390198879594,
                1.095685586026728,
                1.5081525688541877,
                -0.7814291218236755
            ],
            [
                -1.399906821874889,
                0.6786943952050977,
                0.14392027809306981,
                -0.8776037947819126,
                -2.884130503383954,
                -0.06735410172853298
            ],
            [
                0.6816793747594312,
                1.745598028525565,
                -0.061784585863172134,
                0.9740309863370076,
                0.8408681075192955,
                -0.16816425559945272
            ],
            [
                0.38538249545344594,
                2.474539889204564,
                -1.1762778831216574,
                1.1587973119127901,
                -0.44156599777813005,
                -0.6518403505999757
            ],
            [
                -1.6020037418708655,
                -0.7635079418265392,
                3.0500912758343968,
                1.2179006337168414,
                -0.6466579046074439,
                0.6474872724793006
            ],
            [
                0.7719274364184793,
                -0.31627709962972056,
                1.1450572560986054,
                -0.8269297175198587,
                0.2546951716245065,
                0.3980742700517492
            ]
        ],
        [
            [
                -0.6277876418229323,
                -1.0288762312629902,
                1.6556423100726012,
                -0.015321426647028263,
                -0.42114960485001723,
                -0.7281126542347326,
                0.7865365528028593,
                1.1126608665249913,
                0.23530635353449675,
                0.07397207385633821,
                -1.0443334660688561,
                0.8770223308706103,
                -0.5093333547361782,
                0.13186930733850266,
                1.0336416114898905,
                -0.5387507905606651,
                0.03942245829842257,
                -0.5447940539902074,
                0.5482743556845401,
                1.125876423283199,
                0.9588232978913436,
                -0.32181353941090307,
                0.20792980848537018,
                -0.329967980159801,
                -1.8735249095656918,
                -1.5247516562272434,
                -1.08236395344673,
                -0.6828857405362482,
                -0.8108374646313894,
                -0.8736951489534349
            ],
            [
                -0.0783607500067207,
                1.5072305498548133,
                -1.8453664887045962,
                0.3999697259716476,
                0.12094267397543843,
                -1.0677978244582373,
                -0.1825581133544344,
                -0.6112794383174024,
                0.2914748954763318,
                0.9761779042655665,
                1.6678740902807734,
                0.5650829215910058,
                1.9821298866234047,
                0.7872552870270262,
                0.8928858811891722,
                0.3371090448577218,
                1.4532779116542085,
                -0.7711722790546832,
                -1.6328308966695018,
                -0.11629255302242486,
                0.6173456905230996,
                -1.8025406447184822,
                0.5317856673201302,
                0.5252827633672082,
                -1.6813945099887195,
                0.7782879848961874,
                0.07422143550301533,
                0.7589310415189577,
                -0.5966150266984845,
                1.503701369405725
            ],
            [
                -0.2600153434033104,
                0.9409098078263722,
                -1.9549989785556807,
                -0.5216787898896468,
                1.6063715406610333,
                1.594108773090017,
                0.3831690577877478,
                0.9066848288776643,
                -0.2712696375934635,
                0.9364893378894514,
                -0.3720201601660029,
                0.06490478106981261,
                -2.3143582099600706,
                0.8443137596832668,
                -1.0066243690983432,
                0.776813152222273,
                0.1185335768011874,
                1.8151562471800584,
                0.2970021814782207,
                1.8221084877561429,
                -1.0537503709865863,
                -1.4753987883693715,
                -0.28421871126888554,
                0.8089324262433779,
                0.4597983030995597,
                -0.5040517259465371,
                0.5769294452804063,
                0.33494958964260746,
                1.6234682679617418,
                -0.40830172682074856
            ],
            [
                1.5045571988815718,
                0.9714909552026738,
                -2.0620617611010763,
                -1.3847223903100394,
                -0.3848937305772825,
                0.013358137287770872,
                -0.41720666357749153,
                0.6407671921128547,
                0.6793457388950679,
                0.8517473439447996,
                -0.006407527433084796,
                1.1230600040063956,
                0.7766734713302403,
                -1.14688262876379,
                -0.9854681014036285,
                0.8166148517629493,
                1.17702973681248,
                -1.1532359339984688,
                -0.9489273916425537,
                -1.0678436233053208,
                -1.0413101066094692,
                -0.1890285195801756,
                1.9370597326412633,
                -1.3427450690647724,
                -2.0741536612682077,
                0.6869834700877352,
                -2.1493655821303874,
                -1.6429166588545223,
                -0.9060179729013706,
                -0.21486804715159508
            ],
            [
                1.1245964771517927,
                -2.1899932412699252,
                0.669699901448886,
                -0.814251886828751,
                1.1016865476839086,
                1.0287202790641734,
                0.9497606567937941,
                -1.3611125554603514,
                0.23580991575854718,
                0.16565497531620169,
                0.9673109373647872,
                -0.5257847083919636,
                -0.5805230222258685,
                1.6899509237128945,
                0.36741498961325053,
                -1.0643087264226796,
                -1.6988540209903817,
                1.9342562460816708,
                0.9857123937904076,
                -0.3885207065234062,
                1.3074594532396588,
                0.2516941184316173,
                -0.5935760030670287,
                -0.9825124746554453,
                0.11791227491475192,
                1.0838530273949376,
                1.4078749934339037,
                -0.3503876461268748,
                -0.806283538492903,
                -0.7221843525609128
            ],
            [
                -0.7737629858222979,
                -2.1472829320289457,
                0.5702891733346541,
                -0.10259318932499209,
                0.07177678455773706,
                -0.13590844776597982,
                0.039697568188603136,
                -0.7541637077956063,
                1.086050823840003,
                -0.11943608541970123,
                0.43394771032774526,
                -1.273700236940956,
                -0.5929313958331908,
                0.26996309117297707,
                1.2479833463911805,
                -0.28654080803281046,
                -0.26575419004106776,
                -1.5990021255872486,
                -0.29286485445237653,
                -0.5923599541598025,
                0.17921490866592624,
                -0.45187994758630146,
                -0.9162031691532021,
                0.22855637045767535,
                -0.2425110701897759,
                0.6442840279013372,
                0.8481526625648477,
                0.3530814137160115,
                1.0161899110382364,
                -1.0784014192308684
            ],
            [
                1.312527968974154,
                -0.9895717441102567,
                0.6567155230774078,
                1.4346026006114645,
                -1.4570896435008005,
                -0.7238145495595323,
                0.3647078488779294,
                -0.5031635012714362,
                1.753110584882092,
                -0.0309791170257342,
                0.23241571754850565,
                -1.4898326742002,
                -1.8404501463346734,
                -1.506044527198158,
                0.331835472589348,
                0.2074138965350213,
                -0.06284861653601531,
                0.879026341251811,
                1.1405378878049655,
                -0.08709307556705617,
                0.061841169286911815,
                0.10638514366238132,
                -1.3415152995597919,
                0.2790831939654654,
                0.3421790812714998,
                0.00038518875239532195,
                -0.0007950615343631098,
                0.6351430275982394,
                -0.5833426303137074,
                -0.5411319617357504
            ],
            [
                0.5743163906050403,
                0.07708781269475527,
                -2.2138227882185806,
                -0.7251157511158823,
                -1.0597564611920394,
                -0.09388318649434504,
                0.7776021787318476,
                -0.3913063976823573,
                -0.5056704959184608,
                2.294945261806028,
                0.07192029987299188,
                -0.2683803392144535,
                -0.5741866557217674,
                -0.7677128232092493,
                -0.2872222968945613,
                0.18887372589048818,
                -0.35744483726634146,
                1.7567404230703307,
                -0.83422576154433,
                1.4656678639504768,
                -1.7510124603985902,
                -0.18881333558216443,
                0.275670676925698,
                0.4114122450851569,
                -0.2767838902340536,
                1.0921190912888394,
                -0.8206384921632851,
                0.18054511446807395,
                -0.7893666517138067,
                -1.6531476887390821
            ],
            [
                -2.6049407627731185,
                -0.7044670326883177,
                0.675997510792086,
                -0.3738066493570272,
                0.16959089979010422,
                0.39300508816346647,
                -1.0210107722496606,
                -1.7608715406823086,
                -0.005728804413687713,
                -0.9602059789870233,
                2.5742371923700897,
                -1.1726628226667921,
                0.40666836141522206,
                -0.8406630254597809,
                0.5712982846427759,
                -0.19225687972312752,
                -0.007613955153568769,
                0.5314694406675612,
                0.47274699424380573,
                0.1727548702449361,
                1.1644209631476383,
                -0.14586699908909292,
                -0.9281832098564319,
                -0.42417412612840694,
                -0.92768399319605,
                1.0875917894219258,
                0.2939752900465462,
                -0.2323549883493706,
                -0.38778949593512924,
                -2.6073509292193187
            ],
            [
                2.1349023600974104,
                1.2250463747059332,
                -0.10342871429833576,
                -0.03322287083639002,
                1.925840965383635,
                0.5218751392545163,
                -0.06040276658156079,
                0.5138418488573575,
                1.0102643980831136,
                -0.8152849826466836,
                0.28916204931158385,
                -0.5756614710865925,
                1.0688399827318256,
                1.1503373189643094,
                -0.11910337388453363,
                0.5126299755484771,
                1.2150907146909085,
                0.33707857999715674,
                0.005372150522511158,
                0.561702601164413,
                -0.7777793867807198,
                -0.7024244560806563,
                1.9729196691633426,
                -2.6480695747629057,
                -0.29994319172080647,
                -0.5629983509572689,
                -0.9649823015186346,
                0.00950970677607114,
                1.4469169546830487,
                0.9225840828380135
            ],
            [
                0.8306730430984258,
                -0.04755461644556818,
                1.137449443015684,
                0.22142032184626453,
                0.19778421720764877,
                -0.17427033492032426,
                -0.26653275979196167,
                -0.19519329531718382,
                -2.476834251504599,
                -0.2769715031657964,
                0.8196838808773355,
                0.649862239646814,
                -0.46190683772149344,
                0.22354633999535262,
                1.4186477224998002,
                -0.5234319271240743,
                0.653105078935716,
                0.8773629627874756,
                1.3131948162904137,
                -0.739355072923889,
                0.5183764951104355,
                0.6388587394278895,
                0.7412438390227913,
                0.10847272230770084,
                0.38066429308427974,
                0.3061654366731004,
                1.19972945573569,
                -0.5205909949304414,
                0.11056480853412516,
                -1.1718800883123106
            ],
            [
                -0.04378396700288441,
                0.9978954537226312,
                1.3185032305360733,
                -0.5082056984361656,
                1.3922664512191132,
                0.18032421095117324,
                -0.7706815107918378,
                1.8210781754927368,
                1.540428572992388,
                0.6845327515202635,
                0.34923566271484946,
                0.7385742235775825,
                -0.5480894913444729,
                0.11786237614361214,
                0.3621664742552252,
                1.107543434627422,
                -1.4120927878799894,
                -0.08420518761072698,
                -0.6780901902212405,
                0.3208202712092045,
                1.8614959829651856,
                0.5990451077791402,
                -0.4656949478900548,
                -0.4661982487315155,
                -0.03533752543000253,
                -0.30249436060951146,
                -0.11674015301203587,
                0.44803586077475527,
                0.7274341355161721,
                -1.2263126944925649
            ],
            [
                0.25907333682666867,
                0.6237238635682315,
                -0.39451467979916416,
                0.6952789447607717,
                0.8030808321625625,
                -0.7027686188424495,
                0.42031322036445395,
                0.3549522204732652,
                -0.8284735171231398,
                -1.5957542451295954,
                0.06372519862773263,
                -0.30812811816640095,
                -0.543813531777849,
                1.2832351585375197,
                1.5982819719423393,
                0.05826197069391787,
                0.5079045439628702,
                1.3680658177228915,
                -0.2631055622113959,
                -0.5523661774233193,
                0.3841459925351307,
                1.3266494000598472,
                -1.5522370688438296,
                -1.9545689879391586,
                0.37212578158505527,
                -0.0857468442452435,
                -2.442322985167082,
                2.289270929148137,
                -0.8960384667688468,
                -0.3207705844438962
            ],
            [
                0.5552259506414081,
                -1.5213018717643974,
                1.025795199066682,
                -0.22109215549194464,
                -0.34947811824024366,
                0.16987847899122593,
                -0.9844250588239317,
                -1.5839817467386275,
                0.1268758959580575,
                0.3415170719073019,
                -0.07170186380038589,
                -1.6959961599147009,
                -1.825528401650413,
                -1.1946989540386932,
                0.3466360868005733,
                -1.902736733992308,
                1.3109452882827604,
                0.22373202334167458,
                -0.9281014027262746,
                0.6777385653211158,
                -0.6978923368425739,
                2.8852288203429373,
                0.5972795168987577,
                -0.7382004722310291,
                -1.0328682863051108,
                0.7544734863968657,
                -0.17603944648838524,
                1.1186271954227092,
                -0.7518413471342583,
                -0.6349202786133293
            ],
            [
                -0.9866485517520156,
                0.7794749026384769,
                -0.8420339671416216,
                0.17222772847636852,
                0.10365585222819837,
                -0.07148913385093035,
                -1.1240263308942118,
                0.979313329808914,
                2.4364765000413797,
                -0.34931508483012286,
                -0.17322314612545633,
                -0.5764391322547494,
                0.894459079304018,
                -0.5852065925615145,
                -0.22592877910498085,
                1.069182701738464,
                -1.1974354053808112,
                0.5939206502911558,
                -1.1094593478030157,
                1.6140332422470522,
                0.15234091199443173,
                1.6849785818678702,
                -2.469269258332703,
                0.7060866236231158,
                0.8286774820776285,
                -0.3462610036280839,
                -0.5851784630942656,
                1.9671488345881762,
                0.4859147903440092,
                -0.5545794540888096
            ],
            [
                -0.565368784789128,
                -0.5527458420666165,
                0.2981729314743868,
                -1.13081199647875,
                0.9252327556504616,
                1.8354262704858508,
                1.0994411811852052,
                0.9216600245179376,
                -1.2223229652333674,
                0.7225179999540343,
                1.5286741336807603,
                -0.4721100028387542,
                -1.7818297457209598,
                -0.8759055520520259,
                0.6777594695363063,
                1.3285436779405395,
                0.49513255350380925,
                -1.2969878071890328,
                0.7431905794143919,
                1.0174140642448815,
                1.5183078577838567,
                -0.5198542804271591,
                0.2414277778347272,
                0.14404020084225044,
                -0.13447779348620292,
                0.41018558422891244,
                -0.6822641402535468,
                0.020184873704668295,
                1.434404905592669,
                1.1012636340625024
            ],
            [
                0.2772370781198079,
                -0.866454039426394,
                1.50011338560311,
                -0.9513059649584077,
                0.13903408040358756,
                -0.480456529138327,
                -0.5630845742003753,
                1.1889063060707847,
                0.4293042577997635,
                -1.0346266381779732,
                0.8527957005520215,
                0.46097929903870555,
                0.25756018596954017,
                1.0244175318617625,
                -1.0752261258308877,
                0.17039826714785777,
                0.5370392756162913,
                0.4390170024642934,
                1.6487080629040005,
                0.5869166980473103,
                -0.1143438046430105,
                -0.48296478438010476,
                0.2899760090597281,
                -2.664120599183932,
                0.6218473700491537,
                0.189889422078862,
                1.4582468691937418,
                -1.840305958308692,
                1.0431047352730958,
                -0.9855218514973291
            ],
            [
                -1.4780680393905494,
                -0.44101682554759514,
                -0.1461389092096242,
                0.43145582655409176,
                -0.34446086263975173,
                0.35095308455042984,
                -1.6678510326135807,
                0.2888705840954988,
                0.755217342181836,
                -0.08046186716847248,
                1.7759489636255024,
                0.1218519448176448,
                -0.22291575434574956,
                0.7979391835464871,
                0.025443347957481197,
                0.6831390551842551,
                0.281974198470246,
                0.7215795691104144,
                2.1224700970891135,
                -0.7715948436962717,
                0.2383288798070228,
                0.04886818569037935,
                1.553805243603958,
                -1.2331887971283624,
                -1.2107028426548685,
                0.6385755049898653,
                0.9116856419713659,
                1.2171166062801326,
                1.0727597538880729,
                -0.6292284619998209
            ],
            [
                0.2506822452706225,
                -0.06710385173997209,
                -0.5988589954077533,
                -0.12152516555354528,
                0.3490202003125673,
                1.7254853674321693,
                -0.9674347862464837,
                1.4304287589124958,
                -1.517503825641188,
                -0.24397462369080813,
                -1.0950804086673256,
                -0.34848261168558803,
                -0.4116317992287809,
                0.08694193241974842,
                -1.2795044420801598,
                0.7250449583427905,
                -1.215895700295402,
                0.01872847714013242,
                0.0036772323153095115,
                -0.30725675449652246,
                -0.044012822843982564,
                -0.06415760374919259,
                -1.0342052703476026,
                -0.2990798352275948,
                1.2389285636153877,
                0.6143488602222308,
                -1.1877342077507258,
                -0.8116617847657452,
                -1.4488118301369157,
                -0.778926085350972
            ],
            [
                0.8975777068657919,
                -1.2912583314320034,
                0.3713241351477771,
                0.13880158051310623,
                0.6553203748133933,
                -0.6762449037907212,
                -1.305948563251613,
                -0.27503659725278795,
                -1.3782441031414239,
                1.1235667011930381,
                -0.9169219430324185,
                -0.6657856711846885,
                -1.4309612811815136,
                0.4773576845923143,
                -1.139512170436565,
                0.11672663324087437,
                0.8062460827307377,
                -0.45581112759447384,
                0.7964819099998278,
                -0.7650367752210012,
                -1.4251665622605652,
                0.5321471653227112,
                0.8481383622602106,
                0.2890331671312811,
                0.07040031488816681,
                -1.6834075790564227,
                0.9055560100514222,
                -0.18396493460321636,
                -0.7939719748827553,
                -0.005675766438967467
            ],
            [
                -1.2335123867477238,
                1.375041246857629,
                0.11677225675956114,
                -0.03938262893500265,
                -0.6799093331664444,
                -0.5612384942245361,
                0.0750771912724784,
                -0.532349873270207,
                -0.14107784950984606,
                -0.3988867805982837,
                0.2692534574163827,
                -1.310356452281243,
                -0.7446600065476808,
                0.15728470900918654,
                -1.5894618576140889,
                -0.9330937123865011,
                -0.4548673340597289,
                -1.3563643291337313,
                0.31259425664007096,
                0.37419250008534793,
                1.447451465766993,
                0.20747800594387053,
                0.3241299960907063,
                -1.172757186113143,
                1.112627091313699,
                -1.308775052570418,
                0.1458331726624273,
                0.06714161665389941,
                -2.2876185200818626,
                -0.8156500616342434
            ],
            [
                -1.4782279346327334,
                -0.47696502888271947,
                -0.33872541457651983,
                1.0044350963621977,
                -0.7102343948499535,
                0.6712886383796913,
                -1.4753867406601346,
                -1.352826658765848,
                1.0631601849663244,
                1.0954749859421562,
                -0.4383012667883335,
                1.955151062838022,
                -0.7079444062157741,
                -0.24123641820830571,
                0.1380509604530815,
                -2.0552152071050265,
                0.5485608852451049,
                0.37044196286972464,
                -0.06949771012857457,
                0.049516169385606726,
                -0.029306187240842673,
                0.6599086963969025,
                1.622608033721178,
                1.3594722796773862,
                0.46105947308814893,
                0.0504525340407723,
                1.267693790109366,
                -1.2462665725474666,
                0.5199467872047908,
                1.0600739659219944
            ],
            [
                -0.15562544179602775,
                0.4465866944837892,
                0.2647280997928306,
                -0.3289303398366096,
                2.210167844943747,
                0.7243866802556862,
                0.14131778193359196,
                3.2993648876449035,
                2.7972687556304603,
                -1.4109248348473773,
                0.825719390030768,
                0.9686449977303215,
                2.359478301583808,
                -0.26008349781776074,
                0.05517710279850957,
                0.4593360167709638,
                -0.27418273045667074,
                -0.014226578651779134,
                2.320320329049821,
                -1.2945255177989907,
                0.5192444850644323,
                0.4064542953412648,
                0.13108871625809046,
                -0.5811289418775014,
                1.241666809095749,
                0.11724591867420617,
                0.6982168392588987,
                -0.4768446232782058,
                -0.015557544795344139,
                -0.25549772018565675
            ],
            [
                -0.27220491527057344,
                -1.3670597900139474,
                1.3034105758842047,
                -0.30024937648081357,
                -0.3860987023929943,
                1.0239315389388688,
                -0.3236887808709954,
                0.39683801045966455,
                -0.9404128612052611,
                1.2126784963512438,
                0.3408932260944348,
                -0.3186893249549015,
                0.6845149959916341,
                -0.28709837228616447,
                -1.255356081755162,
                -0.8933629422389001,
                -0.02175003276037725,
                -1.5124662163434555,
                1.9492451189690285,
                -0.6523012813161838,
                -1.0659300335038568,
                0.4698228231015527,
                0.5442174831565074,
                0.7052674041239462,
                2.266629315317956,
                0.4488651846808939,
                -0.7756712986906099,
                -0.058193020449122015,
                -0.5407963488456001,
                0.6134324769501014
            ],
            [
                -0.32007092310646446,
                0.4734533887663718,
                1.4714053226009307,
                -0.5065423192390575,
                0.5617728957998518,
                0.4714154688049625,
                -0.7864391361399262,
                2.0800040443922216,
                -0.007859979767080765,
                1.4356009509337464,
                0.6857278792890146,
                -0.17032973946147498,
                -0.264842826675339,
                -1.2986603126002423,
                0.8849470074128397,
                -0.19631226978154873,
                0.8357646188351094,
                -0.8743069133682972,
                -0.5997655867055096,
                0.42037903805108573,
                -1.2440598607974493,
                -0.5354760514221434,
                -0.22770738505534682,
                -1.871376086036579,
                -0.4248235797842,
                -0.33133380525438905,
                0.3777283288051418,
                0.626408455989368,
                1.3015952809377547,
                0.3401249221798955
            ],
            [
                0.013634569394184316,
                -0.3879487612553101,
                1.0627077476119793,
                -0.41140396737538887,
                1.8901768192761337,
                0.9585561997364894,
                0.8066374291471654,
                -1.3280067153119073,
                -1.462618420352442,
                -0.6881876089003818,
                -0.4573055502516345,
                -0.08709887944400778,
                -1.5811776239939326,
                0.3905520335791766,
                -0.6442399017385295,
                -0.6601890873484507,
                -0.1567522058949655,
                0.7168235704379147,
                -1.027220866517653,
                -0.34823266808240105,
                1.494618851683996,
                0.376639842417064,
                0.31791153797553273,
                0.06603050687929496,
                0.5870673176888509,
                -0.423798940874216,
                0.2328926717093981,
                -1.2088851847586168,
                1.1328617933756173,
                -1.0964477601690055
            ],
            [
                -1.2978965063380594,
                0.26768004822173536,
                -0.8118369701996317,
                -0.9033863594970306,
                -0.028209682835893528,
                -2.040941900146028,
                1.6994642875215522,
                0.18695087895752058,
                0.021444309149678185,
                -0.062371115634583335,
                1.151025897758353,
                1.0324928496832924,
                0.16474391282421386,
                0.08956053455844254,
                -1.5456719617421997,
                -2.9490874982412913,
                -0.9202619209310889,
                -0.6420929824738855,
                1.1245182465274528,
                0.1932470922721559,
                0.016857249063237448,
                -1.666426705315617,
                0.02334601716152174,
                1.090744426375081,
                1.2150865334363639,
                -1.0557334814911135,
                -0.700511070906029,
                2.3740397696427142,
                -0.597387646667869,
                -1.2210166197546521
            ],
            [
                -0.0537549751075349,
                -1.4193068081572908,
                -0.47515370919108296,
                0.5044061381658719,
                1.8892497782619373,
                -0.5612852827125294,
                -0.9048183995017066,
                0.6778331106966806,
                -0.8818936529906553,
                -1.3167738875347677,
                -0.20132082299402945,
                0.21614806325297153,
                -0.21280774970437605,
                0.13912853979005715,
                1.1136239486550221,
                0.17696349654077603,
                -0.08753491572550137,
                0.3186100407105292,
                0.006365537643741709,
                0.39084485199133673,
                0.4929516982863352,
                1.1889430713600622,
                0.2951863952391883,
                1.153946869037156,
                -0.11469795558718747,
                1.3191549359598773,
                0.4059502319937487,
                -0.6866923170374457,
                -0.9838107464341452,
                -0.6092415630867336
            ],
            [
                1.3149951601790202,
                -1.357241964743626,
                0.32766590546351826,
                0.8328656590788408,
                0.8512060812611316,
                0.6823694651374552,
                1.5007705239978655,
                -0.7529356713054558,
                0.15583215179036655,
                1.0353303495739123,
                0.7383941550172991,
                -0.04519006152089267,
                -0.3641176789771705,
                -0.42764563854555504,
                -0.9032469346889763,
                -1.2575201643439975,
                0.09804651517058585,
                0.2766285624087557,
                0.7395580529703083,
                -0.18762617320920555,
                -1.1226796729845754,
                2.718426541235886,
                -0.36795373617867044,
                -0.7561373391717425,
                0.7351152496352967,
                -0.5993360534160178,
                -1.0433262092929156,
                0.19299169365035945,
                0.41270430593038687,
                -0.463611498489083
            ],
            [
                -0.29221307382405176,
                1.0396782113243428,
                -0.30163203222858426,
                -0.8391653980775633,
                1.7929678074749003,
                0.2646700357833833,
                -0.9833350781343966,
                -1.546461857025761,
                -0.2044637138821922,
                -0.23489878817810927,
                -0.6992775662970171,
                1.73529398070024,
                -0.38942802321722075,
                -0.6321233022508064,
                -1.1903619109197725,
                0.41396504702192966,
                -0.49003234868864626,
                -0.09902474967983298,
                0.45035284690600835,
                -0.2769244720672531,
                1.0860219855791577,
                -0.38407691073958655,
                0.4762407738023412,
                -0.4698965182436074,
                -1.1502200724684843,
                0.7783916709929553,
                -0.36233073224505485,
                0.32962768855492947,
                0.09783111356002269,
                0.6204724746886169
            ]
        ],
        [
            [
                -0.8125471673436144,
                -0.5257177014285194,
                2.3579427680977028,
                0.573759448030944,
                -1.3246308967784208,
                1.1434662838670038,
                -0.18630954820152043,
                1.5062121297166524,
                -1.890281060253213,
                -0.19293823866351018,
                -1.8346882938706193,
                -0.5919769332552384,
                0.6754377665845859,
                -0.557050842684156,
                -2.079397598847586,
                0.1192083845303978,
                1.5022895362284239,
                1.0239971355313384,
                0.12417986092679227,
                -0.33937008014425163,
                -0.5752001807561791,
                -0.12039376708751201,
                -0.015487349210059271,
                -0.08134370249311247,
                -0.21353387276548483,
                0.3296061286142519,
                -0.2863922384580626,
                -0.41803835285112784,
                1.1146303781899314,
                -2.048182446962296
            ],
            [
                0.405564301067237,
                -0.6088014733616257,
                -0.9495013680651243,
                -1.197610852719495,
                0.3158476863794171,
                -0.39323805992232863,
                -1.3942939646458634,
                -1.6740406558275938,
                0.16735367086711303,
                -1.2314492720303862,
                -1.1179631028768968,
                -1.0147097322596386,
                0.14960672605574948,
                0.38819074339659854,
                -0.22477830503750135,
                -0.4515177674940366,
                2.133394414259624,
                1.6408283780018607,
                -1.5385469014370157,
                1.116400292192321,
                -0.7941065237885663,
                -0.14023655979134678,
                -0.5748982384370268,
                -0.5784614453054483,
                1.3407433563910838,
                0.48892636862427086,
                -0.9595371608356662,
                0.4041759137788955,
                1.0484189783910747,
                -0.08621138862307796
            ],
            [
                1.2381885177554195,
                0.09034121624938068,
                -1.0005914558416642,
                1.011016181455423,
                -0.30996649814237065,
                0.32363607207710066,
                0.07176955840841871,
                -1.3855477014958135,
                0.29286527495759734,
                2.1049940064484653,
                0.06627593391906166,
                1.0931396338594703,
                -1.040796434491827,
                -2.9198316571985963,
                -0.7247714122616195,
                -1.2612180488580205,
                0.7205393084051714,
                -1.523939717714712,
                1.6494038216781068,
                0.6737561117530116,
                -2.2060634322916703,
                -0.4520116201252442,
                -0.9429105225820861,
                -0.3472981384535279,
                1.391195815830526,
                -1.7688588209373017,
                -1.7579806643767086,
                -1.0604566185453936,
                0.7379583881478494,
                -1.8860295271170016
            ]
        ]
    ],
    "epochs": 1000,
    "mini_batch_size": 14,
    "eta": 0.1,
    "error": 0.01
}